0,01951723;0,8868935;0,3293861;-0,6869296;-0,7790439;-0,7943076;0,5903846;0,8359659;-0,1819462;0,8713741;-0,5788876;-0,3227757;-0,3312498;0,9372697;1,047976;0,01017056;-0,1165457;-0,6556069;-0,1604725;-0,09730642;0,2960771;-0,6916233;-0,9785814;0,6945114;-0,715829;-0,3797488;0,4452182;-0,4709675;0,4782211;-0,7552431;-0,08169878;0,5596431;-0,04797366;0,8630827;0,8662333;-0,02863928;0,5577438;-0,5322709;0,7777545;-0,2733599;-0,740122;-0,5713987;-0,7287859;-0,2928626;0,985904;-0,014563;0,44212;-0,4161893;0,4206259;-0,525036;0,7845871;-0,1977702;0,2919156;-0,8537207;-0,7954088;-0,946187;-0,7780918;0,2709165;0,3606734;-1,017977;-0,6750746;0,7611024;-0,8892273;0,8859156;-0,1564314;-0,9165154;-0,8359362;-0,2340069;-0,09327618;-0,2294022;-0,1499268;0,09598307;1,050681;0,2701966;-0,8077573;-0,04036574;0,8467872;0,7461217;0,2431815;0,1986083;0,3256906;-0,3611899;-0,8404664;0,3635635;-0,1524035;-0,8782648;0,3551057;-0,5017738;0,7991103;-0,7025961;-0,2063877;0,9235573;-0,2018257;-0,4634448;0,411716;0,676736;-0,7303709;0,6219886;-0,9502156;0,7663776;0,5954486;-0,2210178;0,4312405;-0,264363;0,1335916;-0,2530813;0,1086241;-0,1449445;-0,4837943;0,7347996;0,8844166;0,2727421;0,2119193;0,7008184;-0,3800405;-0,430256;0,3756641;0,3310838;0,3234542;-0,5228844;0,5024409;1,017961;0,3242539;-0,2333589;0,5468833;-0,326616;0,6543657;-0,3423284;0,04829824;0,4808511;-0,0139589;0,8643578;0,513109;0,1701528;-1,040408;-0,4384288;-0,6526219;0,01756438;-0,081079;0,4953606;1,043979;0,8488621;0,04126028;-0,3415159;0,8222957;0,3772757;0,2519101;0,7267732;-0,487492;0,2344176;0,9715425;-0,8840784;0,07912386;0,04684016;-0,03514864;-0,3426277;-0,04020273;0,5622565;-1,096288;0,06034621;0,3597352;-0,5238298;0,2162097;0,3507252;0,2124712;-0,6471972;-0,2205053;-0,7797083;0,8194881;0,2251576;0,4760562;0,5688929;-0,3959587;0,8141889;0,04424515;0,4368722;0,8151985;0,8394237;-0,3683533;-0,1913242;1,872351;0,8000972;-0,9699501;-0,5566337;0,2317851;1,011847;0,1129502;0,4939888;-0,6195813;0,3084652;1,009952;-0,1017217;0,8106969;-0,6138117;1,033443;0,3691903;0,1467394;-0,1864929;0,1209676;0,2455031;0,1753758;1,047897;0,1020837;
