1,254372;2,141372;1,828977;0,6332873;0,410566;-1,754177;1,003087;-0,7652326;-0,1374349;-0,8744629;0,4232677;-0,7258316;1,614954;1,798727;0,3907447;-0,4524319;-0,3476729;-0,7686652;-0,2450696;-0,4404563;0,5819789;-0,8961579;-0,1155198;-0,02109545;1,697801;1,92881;1,154088;0,1021352;0,04235568;-1,956077;1,494882;1,653755;2,308849;-0,0843714;-0,8186128;-1,045988;0,7656897;2,277844;2,269327;-0,08150349;0,6308744;-3,78588;0,9025412;2,756332;2,664098;0,5078815;0,735374;-2,986734;-0,7265578;0,8493929;0,132801;-0,8962255;0,7249897;0,4601614;-0,1042723;-0,2599449;0,4777636;-0,4083011;0,4092177;0,08258031;-5,692239;-5,83092;-6,572594;-7,299791;-7,118486;-6,967246;15,13198;15,99029;-0,7599097;0,2457708;7,427178;-7,286808;-6,536329;-5,752006;-5,594275;-5,982831;-7,374907;-6,903667;-6,568246;-0,4552791;0,473306;6,321881;1,247153;0,1367455;-0,2720196;0,4873765;0,7917338;-0,4193934;0,6143957;0,9092696;-0,2904977;-0,5579803;-0,574556;0,4776563;0,05828852;0,1365499;-0,5031797;0,1644656;0,07117394;0,845547;-0,1065636;0,8080589;0,3919564;-0,3672298;-5,883848;-4,917218;-5,421692;-4,777831;-6,454256;-5,941617;-5,775537;-5,870357;-0,08133726;0,6729276;5,618032;0,3910857;0,07825434;0,5884558;-1,081881;-0,6829904;-1,144315;0,913531;1,164439;-0,6303592;-0,4847623;0,531571;-9,277493;-8,045911;-9,508431;-8,081309;-8,837921;-8,314355;-8,9195;-9,465959;-0,07527325;0,1010455;9,558252;-23,69766;-19,02999;-19,42216;-20,66015;-24,01826;-23,1206;22,18315;22,02936;0,5922305;-0,2944786;24,72441;0,3848878;-0,4996418;1,082381;-0,03098576;1,321616;0,5687786;1,034694;0,9018146;0,623551;0,2483352;-0,003921488;-3,498091;-4,190864;-3,73937;-4,693206;-4,610604;-3,427481;-4,817423;-3,599946;0,5275342;0,9364607;4,752213;5,002868;-1,583345;-2,355773;-0,8544104;-1,26912;2,357104;-2,383459;8,018689;-2,331208;-0,8159681;-6,268187;
